{
  "type": "LSTM",
  "options": {
    "inputSize": 31,
    "inputRange": 31,
    "hiddenLayers": [
      20,
      20
    ],
    "outputSize": 31,
    "decayRate": 0.999,
    "smoothEps": 1e-8,
    "regc": 0.000001,
    "clipval": 5,
    "maxPredictionLength": 100,
    "dataFormatter": {
      "values": [
        "buy me a laptop",
        "code",
        "computer",
        "drive",
        "hardware",
        "i broke my pc",
        "i found some bugs in the code",
        "i love computers",
        "i love to play games",
        "i need a new power supply",
        "i swapped the memory",
        "i tested the code",
        "it needs more memory",
        "my unit test failed",
        "power supply",
        "program",
        "programming",
        "software",
        "the drive has a 2TB capacity",
        "tried the program, but it was buggy",
        "unit-tests"
      ],
      "indexTable": {
        "2": 23,
        "b": 0,
        "u": 1,
        "y": 2,
        " ": 3,
        "m": 4,
        "e": 5,
        "a": 6,
        "l": 7,
        "p": 8,
        "t": 9,
        "o": 10,
        "c": 11,
        "d": 12,
        "r": 13,
        "i": 14,
        "v": 15,
        "h": 16,
        "w": 17,
        "k": 18,
        "f": 19,
        "n": 20,
        "s": 21,
        "g": 22,
        "T": 24,
        "B": 25,
        ",": 26,
        "-": 27,
        "stop-input": 28,
        "start-output": 29,
        "unrecognized": 30
      },
      "characterTable": {
        "0": "b",
        "1": "u",
        "2": "y",
        "3": " ",
        "4": "m",
        "5": "e",
        "6": "a",
        "7": "l",
        "8": "p",
        "9": "t",
        "10": "o",
        "11": "c",
        "12": "d",
        "13": "r",
        "14": "i",
        "15": "v",
        "16": "h",
        "17": "w",
        "18": "k",
        "19": "f",
        "20": "n",
        "21": "s",
        "22": "g",
        "23": "2",
        "24": "T",
        "25": "B",
        "26": ",",
        "27": "-",
        "28": null,
        "29": null,
        "30": null
      },
      "characters": [
        "b",
        "u",
        "y",
        " ",
        "m",
        "e",
        "a",
        "l",
        "p",
        "t",
        "o",
        "c",
        "d",
        "r",
        "i",
        "v",
        "h",
        "w",
        "k",
        "f",
        "n",
        "s",
        "g",
        "2",
        "T",
        "B",
        ",",
        "-",
        "stop-input",
        "start-output",
        "unrecognized"
      ],
      "specialIndexes": [
        28,
        29,
        30
      ]
    }
  },
  "input": {
    "rows": 32,
    "columns": 31,
    "weights": {
      "0": -3.744746685028076,
      "1": -2.7977960109710693,
      "2": -0.3192076086997986,
      "3": 0.6457529067993164,
      "4": 0.058511920273303986,
      "5": -0.8863729238510132,
      "6": 1.0112190246582031,
      "7": -1.177728533744812,
      "8": -1.3472990989685059,
      "9": 0.2612070143222809,
      "10": -0.4240543842315674,
      "11": -2.0628304481506348,
      "12": 0.8438355326652527,
      "13": -1.4532290697097778,
      "14": -0.12693068385124207,
      "15": 0.6902062892913818,
      "16": 0.6523141860961914,
      "17": 1.022793173789978,
      "18": -0.047753602266311646,
      "19": 0.7899349927902222,
      "20": 0.3419630527496338,
      "21": 0.7071412801742554,
      "22": -2.032288074493408,
      "23": -2.8934221267700195,
      "24": -1.474326729774475,
      "25": -1.6930451393127441,
      "26": 3.5330450534820557,
      "27": 0.776216983795166,
      "28": 0.14240269362926483,
      "29": 0.3171166479587555,
      "30": 0.24000196158885956,
      "31": -5.244675636291504,
      "32": 0.9653812646865845,
      "33": -2.7074546813964844,
      "34": -0.17155849933624268,
      "35": 2.9051425457000732,
      "36": 2.880312204360962,
      "37": 1.6953990459442139,
      "38": 1.0391075611114502,
      "39": 1.2725471258163452,
      "40": -0.7005215287208557,
      "41": -7.171637535095215,
      "42": 1.660006046295166,
      "43": -2.9206466674804688,
      "44": 0.2670997381210327,
      "45": 4.062909126281738,
      "46": 5.844958305358887,
      "47": 0.07573970407247543,
      "48": -2.3010730743408203,
      "49": 3.054581642150879,
      "50": -4.2189555168151855,
      "51": -1.68673574924469,
      "52": 3.9173741340637207,
      "53": -2.5570785999298096,
      "54": -3.563466787338257,
      "55": -0.3200817406177521,
      "56": 1.4999357461929321,
      "57": -1.3148934841156006,
      "58": 3.4688189029693604,
      "59": 1.342155933380127,
      "60": -0.34424006938934326,
      "61": -2.1581077575683594,
      "62": -0.6876198053359985,
      "63": 4.323276042938232,
      "64": 0.5690245628356934,
      "65": -0.3391287326812744,
      "66": 0.5201071500778198,
      "67": 0.06537434458732605,
      "68": 3.4891955852508545,
      "69": 0.6018162369728088,
      "70": 1.892749547958374,
      "71": -2.7846193313598633,
      "72": -2.421334981918335,
      "73": -2.8095691204071045,
      "74": 0.45511728525161743,
      "75": -3.4973976612091064,
      "76": -2.006948471069336,
      "77": -2.622678518295288,
      "78": -2.6256825923919678,
      "79": -1.4639006853103638,
      "80": -2.132638692855835,
      "81": 0.9655829071998596,
      "82": 2.6555964946746826,
      "83": -2.934173583984375,
      "84": -0.7120795249938965,
      "85": 5.364211082458496,
      "86": -0.5286503434181213,
      "87": -3.3896706104278564,
      "88": -0.5986462831497192,
      "89": 0.1463070958852768,
      "90": -3.358337640762329,
      "91": -0.8544617295265198,
      "92": 0.07258317619562149,
      "93": 1.4263888597488403,
      "94": -0.5647953152656555,
      "95": 1.881093144416809,
      "96": 0.009756417945027351,
      "97": -1.9706895351409912,
      "98": -0.45238903164863586,
      "99": -0.663480818271637,
      "100": -0.2721020579338074,
      "101": -3.8182871341705322,
      "102": 1.351370096206665,
      "103": 1.6346774101257324,
      "104": -2.0538859367370605,
      "105": 2.3706881999969482,
      "106": 1.6794415712356567,
      "107": -2.154863119125366,
      "108": -2.6336658000946045,
      "109": 2.177635908126831,
      "110": -2.24379563331604,
      "111": -1.5821408033370972,
      "112": 0.5084462761878967,
      "113": -1.9652246236801147,
      "114": 1.4076536893844604,
      "115": -1.2067564725875854,
      "116": -0.37285271286964417,
      "117": -0.7591869235038757,
      "118": -0.7650792002677917,
      "119": -0.044732119888067245,
      "120": -0.9706982970237732,
      "121": -1.3992319107055664,
      "122": 2.6613929271698,
      "123": 1.4383459091186523,
      "124": -0.18393352627754211,
      "125": -2.1570582389831543,
      "126": 2.335009813308716,
      "127": -0.11405212432146072,
      "128": 1.475946307182312,
      "129": 2.2071025371551514,
      "130": 0.7156945466995239,
      "131": -2.730910062789917,
      "132": -2.233396291732788,
      "133": 0.48265540599823,
      "134": 1.0928128957748413,
      "135": -1.62810218334198,
      "136": 2.200709342956543,
      "137": 3.505711078643799,
      "138": 0.8639938235282898,
      "139": -0.7822848558425903,
      "140": 0.6890888810157776,
      "141": 1.1906813383102417,
      "142": 0.05146840214729309,
      "143": 1.503983736038208,
      "144": 2.693091869354248,
      "145": -2.5123531818389893,
      "146": 0.7070042490959167,
      "147": 1.2538681030273438,
      "148": -1.6901311874389648,
      "149": 1.5970659255981445,
      "150": 1.7458246946334839,
      "151": 0.7120025157928467,
      "152": -2.0383460521698,
      "153": 2.7451095581054688,
      "154": 1.2557677030563354,
      "155": 0.5388067960739136,
      "156": 1.9322097301483154,
      "157": 2.1729819774627686,
      "158": 3.6006667613983154,
      "159": 1.8716129064559937,
      "160": -5.144588470458984,
      "161": -0.6410251259803772,
      "162": -0.31762874126434326,
      "163": -2.997182607650757,
      "164": 3.4246151447296143,
      "165": 0.7703799605369568,
      "166": 4.287538051605225,
      "167": 1.5616655349731445,
      "168": 2.412214994430542,
      "169": 0.007043508812785149,
      "170": -1.9649094343185425,
      "171": -0.9877026081085205,
      "172": -1.7595850229263306,
      "173": -0.0212935172021389,
      "174": -3.8736164569854736,
      "175": -1.3682918548583984,
      "176": -2.907923460006714,
      "177": 2.185540199279785,
      "178": -0.363671213388443,
      "179": -0.6032316088676453,
      "180": 2.0474987030029297,
      "181": -1.7038930654525757,
      "182": -0.21209688484668732,
      "183": -1.0489153861999512,
      "184": 1.5819538831710815,
      "185": -1.1611292362213135,
      "186": -1.530998706817627,
      "187": -0.09493369609117508,
      "188": -1.9957371950149536,
      "189": -0.4326190948486328,
      "190": -0.26557376980781555,
      "191": -3.076805830001831,
      "192": 1.2737135887145996,
      "193": 0.7172013521194458,
      "194": -0.7909584045410156,
      "195": 1.5434198379516602,
      "196": 2.034437417984009,
      "197": 1.6687746047973633,
      "198": 0.8268092274665833,
      "199": -1.0222182273864746,
      "200": 0.554198145866394,
      "201": 1.3152929544448853,
      "202": 0.18543116748332977,
      "203": -1.4580546617507935,
      "204": -0.5520023703575134,
      "205": -0.5652180314064026,
      "206": 1.2536985874176025,
      "207": -0.6331576704978943,
      "208": 0.8252461552619934,
      "209": 0.7561699151992798,
      "210": -0.44064608216285706,
      "211": 1.6835957765579224,
      "212": 0.5652207732200623,
      "213": 4.001838684082031,
      "214": 0.4523254334926605,
      "215": -0.785203218460083,
      "216": -0.5790742039680481,
      "217": -4.449544906616211,
      "218": -0.3474650979042053,
      "219": -0.9071253538131714,
      "220": -0.28014445304870605,
      "221": -1.5265135765075684,
      "222": 0.7459417581558228,
      "223": 2.009596824645996,
      "224": -1.8751591444015503,
      "225": -0.9222155213356018,
      "226": 0.7535169720649719,
      "227": -2.213369131088257,
      "228": -1.2475725412368774,
      "229": -0.060347236692905426,
      "230": 0.6051205396652222,
      "231": 0.5901660919189453,
      "232": -0.09219032526016235,
      "233": 0.10424259305000305,
      "234": -0.47945693135261536,
      "235": -0.10998034477233887,
      "236": 0.5405187010765076,
      "237": -2.4795289039611816,
      "238": 1.2635947465896606,
      "239": 0.6227204203605652,
      "240": -2.5956170558929443,
      "241": 0.35227906703948975,
      "242": -0.8075209259986877,
      "243": 1.8340436220169067,
      "244": -0.6988593935966492,
      "245": -1.4711531400680542,
      "246": 0.4280092716217041,
      "247": -1.1530016660690308,
      "248": 1.8014590740203857,
      "249": 3.506413698196411,
      "250": 1.0616703033447266,
      "251": 0.6906461119651794,
      "252": 9.040873527526855,
      "253": -2.474968910217285,
      "254": -1.0762468576431274,
      "255": -0.05973370745778084,
      "256": -0.23789983987808228,
      "257": -0.06988804787397385,
      "258": 0.5062087774276733,
      "259": 4.036067008972168,
      "260": -1.2943142652511597,
      "261": 0.8961086273193359,
      "262": -1.2039990425109863,
      "263": 2.2166552543640137,
      "264": -4.192168235778809,
      "265": -2.0934884548187256,
      "266": -2.4816205501556396,
      "267": -2.1213979721069336,
      "268": 3.6042301654815674,
      "269": -1.9029141664505005,
      "270": 3.5363242626190186,
      "271": 4.541205883026123,
      "272": 1.0986125469207764,
      "273": 3.3378195762634277,
      "274": -5.8460211753845215,
      "275": 1.195529580116272,
      "276": 0.2622997760772705,
      "277": 1.3870564699172974,
      "278": 0.38590800762176514,
      "279": 1.7073906660079956,
      "280": 1.6683865785598755,
      "281": -2.5856688022613525,
      "282": 0.29704463481903076,
      "283": 0.5939785242080688,
      "284": 4.274749279022217,
      "285": -2.65771484375,
      "286": -1.8875190019607544,
      "287": 3.7872822284698486,
      "288": -0.17980779707431793,
      "289": -1.8299720287322998,
      "290": 2.2655386924743652,
      "291": -3.9090123176574707,
      "292": 1.4719343185424805,
      "293": 1.473325490951538,
      "294": 1.4084678888320923,
      "295": -2.077768325805664,
      "296": 0.19137100875377655,
      "297": 1.0078023672103882,
      "298": -0.8121256232261658,
      "299": 1.2937275171279907,
      "300": -1.2856148481369019,
      "301": 0.3595561683177948,
      "302": -2.4742634296417236,
      "303": -0.00548188341781497,
      "304": 2.836168050765991,
      "305": -0.13554225862026215,
      "306": 0.9538969397544861,
      "307": -1.8099021911621094,
      "308": 1.154178500175476,
      "309": 0.6517943143844604,
      "310": -3.608316659927368,
      "311": 1.3698219060897827,
      "312": 0.5610947012901306,
      "313": -0.5951422452926636,
      "314": 0.5991764664649963,
      "315": -1.0827981233596802,
      "316": 3.2524662017822266,
      "317": -0.7599354982376099,
      "318": 0.5453125238418579,
      "319": -2.1487293243408203,
      "320": -2.5429344177246094,
      "321": -2.641082763671875,
      "322": 0.5447177886962891,
      "323": -3.478278875350952,
      "324": 0.24867947399616241,
      "325": -0.7809640765190125,
      "326": 0.6381053924560547,
      "327": 0.30232155323028564,
      "328": 0.12408802658319473,
      "329": 0.6936742663383484,
      "330": -4.041561126708984,
      "331": -1.649902582168579,
      "332": -2.4277172088623047,
      "333": -0.3561588227748871,
      "334": 3.7659993171691895,
      "335": -4.421074867248535,
      "336": 0.23727339506149292,
      "337": -0.20786535739898682,
      "338": 1.2943366765975952,
      "339": -2.936021566390991,
      "340": -1.7551122903823853,
      "341": -0.021317854523658752,
      "342": -0.9982394576072693,
      "343": 0.28624382615089417,
      "344": -0.784802258014679,
      "345": -2.967214345932007,
      "346": 1.271855354309082,
      "347": 1.6675653457641602,
      "348": -0.14442728459835052,
      "349": 1.74642014503479,
      "350": -1.5521842241287231,
      "351": -1.4209576845169067,
      "352": -3.381308078765869,
      "353": 0.3130543828010559,
      "354": -1.5521332025527954,
      "355": 1.727041482925415,
      "356": -0.7303541898727417,
      "357": 1.1756014823913574,
      "358": 2.685868978500366,
      "359": 2.2760109901428223,
      "360": 3.067992925643921,
      "361": 0.07807546854019165,
      "362": 1.0713753700256348,
      "363": -2.011091947555542,
      "364": -0.20224200189113617,
      "365": 1.5940712690353394,
      "366": -1.0974456071853638,
      "367": 0.22456331551074982,
      "368": -0.36035874485969543,
      "369": 1.5994887351989746,
      "370": -2.212822675704956,
      "371": -1.6178779602050781,
      "372": -3.7302401065826416,
      "373": 2.11043381690979,
      "374": -1.8938000202178955,
      "375": -3.5588760375976562,
      "376": -0.374031126499176,
      "377": -6.142303466796875,
      "378": -1.7116445302963257,
      "379": 0.32764044404029846,
      "380": -0.862104594707489,
      "381": -2.260554075241089,
      "382": -0.05285291746258736,
      "383": 0.13341571390628815,
      "384": 4.260818958282471,
      "385": 3.295964479446411,
      "386": -0.6071576476097107,
      "387": -0.6544906497001648,
      "388": -6.410360336303711,
      "389": -7.440791606903076,
      "390": -1.5143711566925049,
      "391": -4.132833003997803,
      "392": -3.1352055072784424,
      "393": -3.9179153442382812,
      "394": 4.260322570800781,
      "395": 0.5983542203903198,
      "396": 1.6230543851852417,
      "397": 3.252168655395508,
      "398": 2.559222936630249,
      "399": 4.605318546295166,
      "400": 2.5036935806274414,
      "401": -1.4148919582366943,
      "402": 0.5353190898895264,
      "403": -2.3581409454345703,
      "404": 1.128602385520935,
      "405": -1.211473822593689,
      "406": -0.8970770239830017,
      "407": 3.9236648082733154,
      "408": -1.1125805377960205,
      "409": -0.9298335909843445,
      "410": 1.9359111785888672,
      "411": -0.7808956503868103,
      "412": -0.3975542485713959,
      "413": -3.2827799320220947,
      "414": 2.1630775928497314,
      "415": -0.6847995519638062,
      "416": 0.7525282502174377,
      "417": 4.234699249267578,
      "418": 1.2837133407592773,
      "419": -1.1867984533309937,
      "420": -1.4278697967529297,
      "421": 2.548480749130249,
      "422": -2.5709550380706787,
      "423": 0.3212898075580597,
      "424": 0.7837135195732117,
      "425": -0.43812882900238037,
      "426": -1.0505629777908325,
      "427": -0.376670241355896,
      "428": 2.4211623668670654,
      "429": 0.4322707951068878,
      "430": 0.39151903986930847,
      "431": 1.2679182291030884,
      "432": -1.091007113456726,
      "433": -1.1320873498916626,
      "434": -0.7684756517410278,
      "435": -0.736629843711853,
      "436": -0.7065507173538208,
      "437": -0.29187771677970886,
      "438": -0.17110590636730194,
      "439": 0.8061387538909912,
      "440": -0.48002418875694275,
      "441": -0.187459334731102,
      "442": -0.8019885420799255,
      "443": -0.8895035982131958,
      "444": -0.4118175506591797,
      "445": 1.2768492698669434,
      "446": 0.04420550912618637,
      "447": 0.16560359299182892,
      "448": -0.39745086431503296,
      "449": 1.4613441228866577,
      "450": 1.9508243799209595,
      "451": -0.08988269418478012,
      "452": -0.8199446201324463,
      "453": -0.8674452900886536,
      "454": 0.2689901888370514,
      "455": 1.7557874917984009,
      "456": -0.28462865948677063,
      "457": -1.2745275497436523,
      "458": 0.49863091111183167,
      "459": -1.048766851425171,
      "460": 1.6522904634475708,
      "461": 1.027933120727539,
      "462": -0.7900127172470093,
      "463": 0.47925546765327454,
      "464": 0.09480416774749756,
      "465": -3.8032615184783936,
      "466": -2.323148488998413,
      "467": 0.7676228284835815,
      "468": 0.5851569175720215,
      "469": -1.3719390630722046,
      "470": 1.3455849885940552,
      "471": 0.9982626438140869,
      "472": 1.8002275228500366,
      "473": -0.2785075604915619,
      "474": -0.8435530662536621,
      "475": -3.0914671421051025,
      "476": -4.08122444152832,
      "477": 1.404221773147583,
      "478": 1.1098530292510986,
      "479": -1.2545074224472046,
      "480": -0.9461591839790344,
      "481": -0.48980093002319336,
      "482": -0.16652177274227142,
      "483": -2.193372964859009,
      "484": 0.7975904941558838,
      "485": -1.1955262422561646,
      "486": 0.35878315567970276,
      "487": 0.5106812119483948,
      "488": -0.5851143598556519,
      "489": -0.4566057622432709,
      "490": -3.421987533569336,
      "491": 1.5571496486663818,
      "492": -2.447124719619751,
      "493": -1.8702733516693115,
      "494": 0.2830832600593567,
      "495": 0.9683641195297241,
      "496": -0.09198278188705444,
      "497": -4.529017925262451,
      "498": 2.2079920768737793,
      "499": -5.899179935455322,
      "500": -0.9293290972709656,
      "501": 0.03475474566221237,
      "502": -2.4957683086395264,
      "503": -0.6531915068626404,
      "504": 4.237817764282227,
      "505": -3.167541742324829,
      "506": -0.2544691264629364,
      "507": 3.2888803482055664,
      "508": -3.6984012126922607,
      "509": 0.2896685302257538,
      "510": -1.7268222570419312,
      "511": 5.414977073669434,
      "512": 0.47335559129714966,
      "513": 0.6381464600563049,
      "514": 3.1426615715026855,
      "515": 0.7484856843948364,
      "516": 2.3045578002929688,
      "517": 5.822135925292969,
      "518": -5.959346771240234,
      "519": -5.315584659576416,
      "520": 0.34204578399658203,
      "521": 4.315966606140137,
      "522": -1.5757383108139038,
      "523": 2.2808361053466797,
      "524": 1.294479489326477,
      "525": -0.8602413535118103,
      "526": 4.036296844482422,
      "527": 3.391303062438965,
      "528": -2.532898187637329,
      "529": -0.11641529202461243,
      "530": -0.8967684507369995,
      "531": -2.3427984714508057,
      "532": -0.9342482686042786,
      "533": 0.7451344728469849,
      "534": -1.6168246269226074,
      "535": 0.6870708465576172,
      "536": 0.14172784984111786,
      "537": 2.34234356880188,
      "538": 2.7080554962158203,
      "539": -2.4466004371643066,
      "540": 0.054608747363090515,
      "541": -2.3271307945251465,
      "542": 0.4760717451572418,
      "543": 2.5928118228912354,
      "544": 1.1453725099563599,
      "545": -0.4481891989707947,
      "546": 3.8716351985931396,
      "547": 2.1283907890319824,
      "548": 0.9776536226272583,
      "549": 0.005918652750551701,
      "550": -1.786330223083496,
      "551": -0.7673074007034302,
      "552": 1.6696064472198486,
      "553": -0.18709903955459595,
      "554": 0.4141680896282196,
      "555": -0.4760201871395111,
      "556": 0.9858030080795288,
      "557": 2.7644219398498535,
      "558": 0.776931881904602,
      "559": -0.4679188132286072,
      "560": 0.3141126036643982,
      "561": -0.380756676197052,
      "562": 0.9799224734306335,
      "563": 0.3606858551502228,
      "564": -0.215627983212471,
      "565": 1.4943045377731323,
      "566": -0.4809694290161133,
      "567": 1.4282050132751465,
      "568": 3.096096992492676,
      "569": 5.268234729766846,
      "570": -0.16092342138290405,
      "571": 2.022488594055176,
      "572": 0.3894539475440979,
      "573": -0.9444259405136108,
      "574": 1.1679089069366455,
      "575": 0.9927414655685425,
      "576": 1.267525553703308,
      "577": -0.06217220798134804,
      "578": -0.4970323443412781,
      "579": 0.6449532508850098,
      "580": 0.025301316753029823,
      "581": 0.5707052946090698,
      "582": -0.11267156898975372,
      "583": 2.000291347503662,
      "584": 0.5367312431335449,
      "585": -0.15109407901763916,
      "586": 2.1442201137542725,
      "587": -0.39386191964149475,
      "588": 0.27376553416252136,
      "589": -2.4821629524230957,
      "590": -6.141487121582031,
      "591": -6.150270462036133,
      "592": -6.739713191986084,
      "593": -4.008617401123047,
      "594": -5.699931621551514,
      "595": 2.27127742767334,
      "596": -7.307558536529541,
      "597": 12.964442253112793,
      "598": -3.811068058013916,
      "599": 0.40762245655059814,
      "600": -3.079085350036621,
      "601": -7.806090354919434,
      "602": -8.505196571350098,
      "603": 3.2286887168884277,
      "604": 2.9101369380950928,
      "605": 11.052633285522461,
      "606": 5.135012626647949,
      "607": 5.639617919921875,
      "608": 10.527003288269043,
      "609": 2.896684408187866,
      "610": 4.07965612411499,
      "611": -9.292428970336914,
      "612": -7.933723449707031,
      "613": 3.5692331790924072,
      "614": 4.83364200592041,
      "615": 1.1423070430755615,
      "616": 4.019989013671875,
      "617": 3.716034412384033,
      "618": 0.012855445966124535,
      "619": -6.7443647384643555,
      "620": 2.0742692947387695,
      "621": 1.9268213510513306,
      "622": -3.942915439605713,
      "623": 1.3186064958572388,
      "624": 0.16212710738182068,
      "625": 1.2702285051345825,
      "626": -0.7718142867088318,
      "627": -5.598032474517822,
      "628": 2.439483165740967,
      "629": -1.102495789527893,
      "630": 2.5074307918548584,
      "631": -0.6219302415847778,
      "632": -0.32801544666290283,
      "633": -3.8430893421173096,
      "634": 1.7603647708892822,
      "635": -1.0316106081008911,
      "636": 1.8174687623977661,
      "637": 3.815955638885498,
      "638": -0.8939722776412964,
      "639": 2.10015869140625,
      "640": -0.04387317970395088,
      "641": -1.821150779724121,
      "642": -0.5950877070426941,
      "643": 2.5390336513519287,
      "644": 0.9249876141548157,
      "645": -0.9839617013931274,
      "646": 1.7468199729919434,
      "647": 1.2717403173446655,
      "648": 2.3266806602478027,
      "649": 1.2269937992095947,
      "650": -1.9507657289505005,
      "651": -4.913700103759766,
      "652": 0.6592384576797485,
      "653": -6.426211833953857,
      "654": -0.606626033782959,
      "655": 4.2559895515441895,
      "656": 3.0584921836853027,
      "657": 2.1239984035491943,
      "658": 0.46789848804473877,
      "659": 1.057073950767517,
      "660": -1.4758917093276978,
      "661": 0.396627277135849,
      "662": -0.9325160384178162,
      "663": -1.7197542190551758,
      "664": 2.1447203159332275,
      "665": 1.3741400241851807,
      "666": 3.132967472076416,
      "667": 2.0526299476623535,
      "668": -0.48911428451538086,
      "669": -0.6863529682159424,
      "670": -2.3007185459136963,
      "671": -1.3404309749603271,
      "672": 8.393633842468262,
      "673": -0.8832877278327942,
      "674": 2.1415200233459473,
      "675": -1.7648093700408936,
      "676": -1.6590502262115479,
      "677": 0.26790541410446167,
      "678": 0.2797914147377014,
      "679": -1.427450180053711,
      "680": 2.2572505474090576,
      "681": 0.740151584148407,
      "682": -0.9417502284049988,
      "683": -0.3433161973953247,
      "684": 1.0111143589019775,
      "685": 0.9017156362533569,
      "686": 1.2095855474472046,
      "687": -1.5095280408859253,
      "688": -0.7530128955841064,
      "689": 1.1185534000396729,
      "690": -0.8856862187385559,
      "691": -0.5536444187164307,
      "692": -3.029965400695801,
      "693": 3.6083855628967285,
      "694": -1.7523831129074097,
      "695": -1.0071303844451904,
      "696": -0.4938223659992218,
      "697": 1.2147231101989746,
      "698": 0.04165393114089966,
      "699": -1.479853630065918,
      "700": 0.4914644956588745,
      "701": 0.8578806519508362,
      "702": 0.13586173951625824,
      "703": 0.8090425729751587,
      "704": -1.561071753501892,
      "705": -0.057775042951107025,
      "706": -1.524560570716858,
      "707": 2.696436643600464,
      "708": -1.4153531789779663,
      "709": 0.7232311964035034,
      "710": 0.40662920475006104,
      "711": 0.1326712816953659,
      "712": 0.9925973415374756,
      "713": -5.083271026611328,
      "714": 4.235185623168945,
      "715": -3.5793004035949707,
      "716": -1.9436571598052979,
      "717": 2.5031230449676514,
      "718": -3.3684237003326416,
      "719": 1.7531678676605225,
      "720": 0.20787210762500763,
      "721": 4.018878936767578,
      "722": -5.0706095695495605,
      "723": -6.265007972717285,
      "724": -0.5359135270118713,
      "725": -1.6025317907333374,
      "726": -9.790614128112793,
      "727": 2.644629716873169,
      "728": -0.27093446254730225,
      "729": -2.9942948818206787,
      "730": -2.0929367542266846,
      "731": 1.692769169807434,
      "732": -3.0248591899871826,
      "733": -3.497593641281128,
      "734": -1.3911426067352295,
      "735": -2.8553757667541504,
      "736": -0.5335788726806641,
      "737": 3.3256146907806396,
      "738": -1.2025800943374634,
      "739": -2.970245122909546,
      "740": -0.06175398454070091,
      "741": 2.3996124267578125,
      "742": -0.771065890789032,
      "743": -4.186737060546875,
      "744": -7.8379998207092285,
      "745": -3.6908535957336426,
      "746": 7.736939430236816,
      "747": -14.340655326843262,
      "748": 3.69543194770813,
      "749": -6.552540302276611,
      "750": -11.725749015808105,
      "751": 0.21273715794086456,
      "752": -13.598374366760254,
      "753": -2.403252363204956,
      "754": -5.3153395652771,
      "755": -3.3394086360931396,
      "756": 8.666497230529785,
      "757": -0.2500985860824585,
      "758": -0.0746641606092453,
      "759": -11.005005836486816,
      "760": -4.420541286468506,
      "761": 1.9704184532165527,
      "762": -9.696271896362305,
      "763": -6.502758026123047,
      "764": 3.4072201251983643,
      "765": -6.11204195022583,
      "766": -3.4449403285980225,
      "767": 2.054670810699463,
      "768": -1.5635783672332764,
      "769": -7.010065078735352,
      "770": 0.055738892406225204,
      "771": -7.20747184753418,
      "772": 5.6005072593688965,
      "773": -5.988503456115723,
      "774": -1.3068296909332275,
      "775": 1.952455759048462,
      "776": 2.2559173107147217,
      "777": 2.1272313594818115,
      "778": 7.129025459289551,
      "779": 15.324610710144043,
      "780": -6.785630226135254,
      "781": 7.579181671142578,
      "782": 0.47345659136772156,
      "783": 0.1429147720336914,
      "784": -3.6166088581085205,
      "785": -3.2178664207458496,
      "786": 1.617238998413086,
      "787": 5.044898509979248,
      "788": -6.8175482749938965,
      "789": -2.982117176055908,
      "790": -8.085806846618652,
      "791": -16.20296859741211,
      "792": 3.809937000274658,
      "793": -5.523701190948486,
      "794": -0.8672297596931458,
      "795": 4.036153793334961,
      "796": -8.227579116821289,
      "797": -5.808210849761963,
      "798": 18.978254318237305,
      "799": 3.1793572902679443,
      "800": -5.589705944061279,
      "801": -8.520007133483887,
      "802": -2.840102434158325,
      "803": -6.383354663848877,
      "804": -3.4674110412597656,
      "805": 0.9822835326194763,
      "806": -2.5881576538085938,
      "807": -13.834993362426758,
      "808": 1.4354156255722046,
      "809": 3.3781306743621826,
      "810": -12.127964973449707,
      "811": -1.0751607418060303,
      "812": -20.2403621673584,
      "813": -2.1845974922180176,
      "814": -0.5012219548225403,
      "815": -10.625431060791016,
      "816": -16.320423126220703,
      "817": 1.8450764417648315,
      "818": -6.308155536651611,
      "819": 8.797826766967773,
      "820": -9.911164283752441,
      "821": 7.837020397186279,
      "822": 2.7456159591674805,
      "823": 0.802176833152771,
      "824": -9.324807167053223,
      "825": 5.471125602722168,
      "826": -9.919071197509766,
      "827": 1.1531471014022827,
      "828": 4.5018205642700195,
      "829": -6.9709792137146,
      "830": -2.0713722705841064,
      "831": -13.156083106994629,
      "832": 2.2990031242370605,
      "833": -0.9183956384658813,
      "834": 4.471236705780029,
      "835": 4.393433570861816,
      "836": 9.651999473571777,
      "837": -5.264301300048828,
      "838": -0.2102072834968567,
      "839": 4.958625316619873,
      "840": -4.728488922119141,
      "841": 4.824219226837158,
      "842": 8.856709480285645,
      "843": 0.18766264617443085,
      "844": 4.993300914764404,
      "845": 2.339205265045166,
      "846": -4.1609649658203125,
      "847": -11.201521873474121,
      "848": 6.9941630363464355,
      "849": 1.6854039430618286,
      "850": -8.291574478149414,
      "851": 0.8692746162414551,
      "852": 3.4726858139038086,
      "853": -1.9946104288101196,
      "854": 2.1722724437713623,
      "855": 7.383184432983398,
      "856": -0.44999513030052185,
      "857": -6.471622943878174,
      "858": 5.35457706451416,
      "859": -8.779088973999023,
      "860": -4.778228759765625,
      "861": 0.9117364287376404,
      "862": 5.168182373046875,
      "863": -5.95991325378418,
      "864": 9.469051361083984,
      "865": 15.224394798278809,
      "866": -12.45319652557373,
      "867": -7.793402194976807,
      "868": 1.678933024406433,
      "869": 2.489633083343506,
      "870": -0.2621605098247528,
      "871": -0.9177253246307373,
      "872": -4.987399578094482,
      "873": -3.268781900405884,
      "874": 2.3734021186828613,
      "875": -2.011427402496338,
      "876": 4.480373382568359,
      "877": -5.510890007019043,
      "878": -0.3952343165874481,
      "879": -3.949984550476074,
      "880": 0.18746912479400635,
      "881": -13.169334411621094,
      "882": 5.742741107940674,
      "883": 4.249255180358887,
      "884": -1.247246265411377,
      "885": 0.8451516628265381,
      "886": 7.045615196228027,
      "887": 1.6519168615341187,
      "888": -4.525406837463379,
      "889": 1.9084818363189697,
      "890": -5.285189151763916,
      "891": -2.14298677444458,
      "892": 10.532886505126953,
      "893": -1.8521878719329834,
      "894": -2.9069664478302,
      "895": 10.674371719360352,
      "896": 11.420892715454102,
      "897": -10.393372535705566,
      "898": -14.19168758392334,
      "899": 2.3050038814544678,
      "900": -0.7068474888801575,
      "901": -0.49753183126449585,
      "902": 0.3633478581905365,
      "903": -1.598081350326538,
      "904": -3.670321464538574,
      "905": -1.0591868162155151,
      "906": -1.8793655633926392,
      "907": -0.6300032734870911,
      "908": 2.3894529342651367,
      "909": 7.149755477905273,
      "910": 0.8967469334602356,
      "911": -1.1771087646484375,
      "912": 0.8547463417053223,
      "913": -1.542450189590454,
      "914": -1.0286980867385864,
      "915": 0.31725871562957764,
      "916": 0.5129427909851074,
      "917": -1.6946767568588257,
      "918": 0.7943143844604492,
      "919": -0.5408991575241089,
      "920": -1.9098948240280151,
      "921": 2.567960739135742,
      "922": 1.5371971130371094,
      "923": -0.09583310782909393,
      "924": -1.7335528135299683,
      "925": -0.007903438992798328,
      "926": -1.3066543340682983,
      "927": -0.5797884464263916,
      "928": 0.1999799907207489,
      "929": 0.7170355916023254,
      "930": 0.7852990627288818,
      "931": 0.7123144865036011,
      "932": 0.08363676071166992,
      "933": -2.0366551876068115,
      "934": 1.570569396018982,
      "935": 0.5062514543533325,
      "936": -0.04893136024475098,
      "937": 2.7108941078186035,
      "938": -0.05645482614636421,
      "939": -1.3399574756622314,
      "940": 0.3064214885234833,
      "941": 2.6095776557922363,
      "942": 0.5944470167160034,
      "943": 0.6968492269515991,
      "944": 0.8851019144058228,
      "945": -1.3871742486953735,
      "946": -0.9388011693954468,
      "947": -1.6337602138519287,
      "948": 1.5242382287979126,
      "949": -2.1573970317840576,
      "950": 0.8993969559669495,
      "951": -0.06339233368635178,
      "952": -1.0702687501907349,
      "953": 0.26137876510620117,
      "954": 0.939263641834259,
      "955": -0.22367574274539948,
      "956": 0.5238991379737854,
      "957": -1.575616717338562,
      "958": 0.022795716300606728,
      "959": -0.3030127286911011,
      "960": -0.46899572014808655,
      "961": -0.047411538660526276,
      "962": 0.06871883571147919,
      "963": -0.014384999871253967,
      "964": 0.06927292048931122,
      "965": 0.07519950717687607,
      "966": -0.0381733663380146,
      "967": 0.043742332607507706,
      "968": -0.012969904579222202,
      "969": 0.02202605828642845,
      "970": 0.07003384083509445,
      "971": 0.06254903227090836,
      "972": 0.06757915765047073,
      "973": -0.003189133247360587,
      "974": -0.06956273317337036,
      "975": -0.010637926869094372,
      "976": 0.007535000331699848,
      "977": 0.05157695710659027,
      "978": 0.05032084137201309,
      "979": 0.03688434511423111,
      "980": 0.06493394076824188,
      "981": -0.04383939877152443,
      "982": 0.01906805858016014,
      "983": -0.01853778585791588,
      "984": 0.03165220096707344,
      "985": -0.028014974668622017,
      "986": 0.051896896213293076,
      "987": 0.036975812166929245,
      "988": -0.01717080920934677,
      "989": 0.05979325622320175,
      "990": -0.050959475338459015,
      "991": -0.0564773790538311
    }
  },
  "hiddenLayers": [
    {
      "inputMatrix": {
        "rows": 20,
        "columns": 31,
        "weights": {
          "0": 1.2477736473083496,
          "1": 1.4487124681472778,
          "2": -1.0630803108215332,
          "3": 0.020374150946736336,
          "4": -0.9811807870864868,
          "5": -0.20868545770645142,
          "6": -0.1255464255809784,
          "7": 0.1637698858976364,
          "8": 0.5881659388542175,
          "9": 0.967205822467804,
          "10": 3.6216959953308105,
          "11": 0.6578438878059387,
          "12": 1.5572315454483032,
          "13": 0.635653555393219,
          "14": 0.7760888934135437,
          "15": -1.2345832586288452,
          "16": 0.9356138706207275,
          "17": -1.5999614000320435,
          "18": 0.8630340099334717,
          "19": -1.772053837776184,
          "20": -1.9079359769821167,
          "21": 0.05700543150305748,
          "22": -0.4158773124217987,
          "23": 0.06521756947040558,
          "24": 0.7510731816291809,
          "25": -0.4707418978214264,
          "26": 0.09973327815532684,
          "27": -0.3033040463924408,
          "28": 3.2646939754486084,
          "29": -1.258695125579834,
          "30": -1.1582444906234741,
          "31": -1.5364086627960205,
          "32": -1.4882755279541016,
          "33": -0.04188564047217369,
          "34": 0.09760395437479019,
          "35": -0.43279680609703064,
          "36": 1.8173489570617676,
          "37": -1.862365484237671,
          "38": -0.08900530636310577,
          "39": 0.5528188943862915,
          "40": -0.6473085880279541,
          "41": -1.6389389038085938,
          "42": 0.7628853917121887,
          "43": -1.3828599452972412,
          "44": 0.4491645395755768,
          "45": 0.3572619557380676,
          "46": 1.472164273262024,
          "47": 1.8436548709869385,
          "48": 1.5450072288513184,
          "49": 0.5476874709129333,
          "50": 0.2520615756511688,
          "51": -2.206941604614258,
          "52": 3.2999441623687744,
          "53": -1.1663711071014404,
          "54": -2.8012404441833496,
          "55": 0.313233345746994,
          "56": 0.6638005971908569,
          "57": 0.9570419788360596,
          "58": -0.5351728200912476,
          "59": 1.929245114326477,
          "60": -0.7217432856559753,
          "61": 0.3415376543998718,
          "62": 0.8585692644119263,
          "63": -3.438443660736084,
          "64": -1.6078206300735474,
          "65": -0.2844839096069336,
          "66": -0.9820794463157654,
          "67": 1.0565088987350464,
          "68": -1.2790807485580444,
          "69": -2.5570764541625977,
          "70": 0.13972172141075134,
          "71": 0.3934341073036194,
          "72": 0.7540745139122009,
          "73": -1.9245975017547607,
          "74": -0.22924241423606873,
          "75": 1.31790030002594,
          "76": 0.15476758778095245,
          "77": -0.10499092191457748,
          "78": 1.2596536874771118,
          "79": 2.907083034515381,
          "80": 0.4267151951789856,
          "81": 1.6794586181640625,
          "82": 0.26434525847435,
          "83": 1.4390488862991333,
          "84": 0.8548409342765808,
          "85": -1.2961955070495605,
          "86": -1.0461540222167969,
          "87": -1.5402008295059204,
          "88": 0.7491487264633179,
          "89": -1.532535433769226,
          "90": -1.132606029510498,
          "91": 1.3668186664581299,
          "92": 0.81682288646698,
          "93": 1.2627086639404297,
          "94": -0.9267446398735046,
          "95": 0.8502848744392395,
          "96": 2.9994282722473145,
          "97": 0.8962512016296387,
          "98": -0.945781946182251,
          "99": -0.7918128371238708,
          "100": -2.0220282077789307,
          "101": -1.5728768110275269,
          "102": 1.1871870756149292,
          "103": 2.69636607170105,
          "104": 0.15418927371501923,
          "105": 1.440371036529541,
          "106": 1.7567445039749146,
          "107": -1.0930464267730713,
          "108": -1.0063141584396362,
          "109": 0.3745590150356293,
          "110": 2.2446351051330566,
          "111": -1.7750685214996338,
          "112": 1.0170577764511108,
          "113": -0.6191268563270569,
          "114": -0.49580758810043335,
          "115": 1.8970847129821777,
          "116": 1.2313164472579956,
          "117": -0.11573787778615952,
          "118": -0.8558700084686279,
          "119": -0.7125855684280396,
          "120": -1.8274182081222534,
          "121": 0.37790119647979736,
          "122": 1.3753185272216797,
          "123": 2.7428503036499023,
          "124": 1.3405888080596924,
          "125": 1.5722665786743164,
          "126": 0.7009595632553101,
          "127": -0.2662275731563568,
          "128": -0.37441375851631165,
          "129": -0.8349690437316895,
          "130": -1.231774926185608,
          "131": 0.998764157295227,
          "132": -0.23376546800136566,
          "133": 0.384681761264801,
          "134": 0.6475887894630432,
          "135": 0.8192142248153687,
          "136": 1.4096643924713135,
          "137": 0.9874060750007629,
          "138": -1.3143420219421387,
          "139": -3.117943525314331,
          "140": -0.9034069180488586,
          "141": -0.7515185475349426,
          "142": -2.088505506515503,
          "143": -1.6368802785873413,
          "144": -1.5321661233901978,
          "145": -0.8065406680107117,
          "146": 1.641338586807251,
          "147": -0.13423968851566315,
          "148": 1.1589003801345825,
          "149": -1.5190269947052002,
          "150": -1.7347146272659302,
          "151": -2.678867816925049,
          "152": 0.42529913783073425,
          "153": 0.0955834612250328,
          "154": 0.16704554855823517,
          "155": 1.4464740753173828,
          "156": -2.0171730518341064,
          "157": -0.15392938256263733,
          "158": -1.0832531452178955,
          "159": -1.344986081123352,
          "160": 1.692431926727295,
          "161": -0.5230408906936646,
          "162": -0.7498185038566589,
          "163": 0.5948497653007507,
          "164": -1.9120866060256958,
          "165": 0.8300122022628784,
          "166": -0.006768896244466305,
          "167": 0.2730870544910431,
          "168": 1.4980955123901367,
          "169": -0.34407687187194824,
          "170": -0.8040729761123657,
          "171": 0.919157087802887,
          "172": 1.644412636756897,
          "173": -0.14432483911514282,
          "174": -0.20226748287677765,
          "175": -0.1644122153520584,
          "176": 0.8012630343437195,
          "177": -0.7853314876556396,
          "178": -0.49463286995887756,
          "179": 0.23658037185668945,
          "180": -2.119981527328491,
          "181": 2.176708221435547,
          "182": -1.508791208267212,
          "183": -1.0918779373168945,
          "184": 0.2824280858039856,
          "185": 0.6326475143432617,
          "186": 1.162172794342041,
          "187": 1.1836637258529663,
          "188": -0.10944686084985733,
          "189": -1.1887797117233276,
          "190": 1.7572507858276367,
          "191": 0.3186999559402466,
          "192": 0.6900590062141418,
          "193": -1.0105066299438477,
          "194": 0.27498859167099,
          "195": -0.7040918469429016,
          "196": -1.2835625410079956,
          "197": -0.09139440208673477,
          "198": -0.42875728011131287,
          "199": -1.44015634059906,
          "200": 1.2931510210037231,
          "201": -1.2365186214447021,
          "202": 0.3004942238330841,
          "203": 0.7501371502876282,
          "204": 0.828964352607727,
          "205": -0.0010982138337567449,
          "206": 1.0328726768493652,
          "207": -0.8654743432998657,
          "208": -1.2646384239196777,
          "209": 1.9662411212921143,
          "210": 1.348551869392395,
          "211": -0.8548088669776917,
          "212": -1.9503366947174072,
          "213": 0.6398852467536926,
          "214": 1.9878571033477783,
          "215": -2.1359751224517822,
          "216": -3.5239102840423584,
          "217": 0.15126030147075653,
          "218": 1.3214356899261475,
          "219": 0.13994449377059937,
          "220": 0.8803600072860718,
          "221": -0.3022434711456299,
          "222": -1.1039228439331055,
          "223": -1.9796347618103027,
          "224": -0.12081658095121384,
          "225": -0.32803088426589966,
          "226": 0.7662185430526733,
          "227": -0.3325572907924652,
          "228": 0.6710509657859802,
          "229": -0.17141084372997284,
          "230": -0.22360870242118835,
          "231": -1.5096101760864258,
          "232": -1.7268855571746826,
          "233": -2.6264240741729736,
          "234": -1.9606891870498657,
          "235": -2.1945955753326416,
          "236": -0.9442067742347717,
          "237": -0.7221879959106445,
          "238": -1.3391423225402832,
          "239": 0.07434716075658798,
          "240": 0.6568301916122437,
          "241": 0.12470052391290665,
          "242": -1.4800918102264404,
          "243": -1.5666441917419434,
          "244": -3.394016742706299,
          "245": -1.2817299365997314,
          "246": -0.6159477233886719,
          "247": 0.30165180563926697,
          "248": 3.744309663772583,
          "249": 1.2139581441879272,
          "250": -0.3597119152545929,
          "251": 1.6236352920532227,
          "252": -1.8823002576828003,
          "253": -1.68120539188385,
          "254": -0.97368323802948,
          "255": 0.39880332350730896,
          "256": -0.5962092280387878,
          "257": 2.486388683319092,
          "258": 3.3856911659240723,
          "259": 1.4374561309814453,
          "260": -0.018438423052430153,
          "261": 0.37546640634536743,
          "262": -0.7940330505371094,
          "263": -1.0142878293991089,
          "264": 1.026343584060669,
          "265": -1.3671493530273438,
          "266": -0.7963711619377136,
          "267": 0.4528283178806305,
          "268": -1.027204155921936,
          "269": 0.0647980347275734,
          "270": -0.11530771851539612,
          "271": 0.7271521091461182,
          "272": 0.16952355206012726,
          "273": -0.23078103363513947,
          "274": -0.9551182389259338,
          "275": -0.27147459983825684,
          "276": 1.271942377090454,
          "277": 0.3018549382686615,
          "278": 0.9270453453063965,
          "279": 0.11034616082906723,
          "280": -1.080740213394165,
          "281": 0.369929701089859,
          "282": 0.06318825483322144,
          "283": 0.6726514101028442,
          "284": 0.07602012902498245,
          "285": -1.356173038482666,
          "286": 0.8698311448097229,
          "287": -1.6640194654464722,
          "288": 0.5418088436126709,
          "289": -0.8399444222450256,
          "290": 2.7103052139282227,
          "291": 0.038832709193229675,
          "292": 1.4962842464447021,
          "293": -0.23437951505184174,
          "294": -0.0043111322447657585,
          "295": 0.18809126317501068,
          "296": 0.06327031552791595,
          "297": 0.6659276485443115,
          "298": -0.7062360048294067,
          "299": -0.34060680866241455,
          "300": 2.142308473587036,
          "301": 1.258004903793335,
          "302": -1.1076421737670898,
          "303": -1.43898606300354,
          "304": 3.375382661819458,
          "305": -0.9973335266113281,
          "306": 0.5094984769821167,
          "307": 0.24171006679534912,
          "308": 1.2754895687103271,
          "309": 0.19054840505123138,
          "310": 1.620957374572754,
          "311": 0.7643083930015564,
          "312": 0.8761934638023376,
          "313": -1.0765243768692017,
          "314": 0.2505947947502136,
          "315": -4.284520626068115,
          "316": 0.9069322347640991,
          "317": 2.273590564727783,
          "318": 2.530596971511841,
          "319": -1.447252631187439,
          "320": 1.4636814594268799,
          "321": 2.1546177864074707,
          "322": -1.529167890548706,
          "323": -1.1154134273529053,
          "324": -1.0160574913024902,
          "325": 0.3067198395729065,
          "326": 0.0729646161198616,
          "327": -0.5524322986602783,
          "328": 1.7172728776931763,
          "329": 0.8793246150016785,
          "330": 0.36318740248680115,
          "331": -0.5061057209968567,
          "332": 0.18317534029483795,
          "333": 1.4734916687011719,
          "334": -0.17777277529239655,
          "335": 1.2738252878189087,
          "336": -2.035670280456543,
          "337": 0.5714108347892761,
          "338": 1.2769052982330322,
          "339": -2.3287899494171143,
          "340": -0.2572506070137024,
          "341": 0.2954925000667572,
          "342": 0.11395397037267685,
          "343": -0.779574453830719,
          "344": -0.6201300621032715,
          "345": -0.9253943562507629,
          "346": 1.3555387258529663,
          "347": -0.7850500345230103,
          "348": 1.1262739896774292,
          "349": 2.1197755336761475,
          "350": -0.8804848790168762,
          "351": -1.998706340789795,
          "352": -2.106602907180786,
          "353": -0.40888187289237976,
          "354": 0.8969732522964478,
          "355": 1.4653654098510742,
          "356": -0.7011539340019226,
          "357": -3.835416555404663,
          "358": 0.33068549633026123,
          "359": 1.1130667924880981,
          "360": -0.6524047255516052,
          "361": -1.5730857849121094,
          "362": -1.786001443862915,
          "363": 2.201082706451416,
          "364": -1.6221009492874146,
          "365": 0.1407877653837204,
          "366": -0.7978944778442383,
          "367": 1.1189911365509033,
          "368": -2.188920497894287,
          "369": -0.5697273015975952,
          "370": -0.9871247410774231,
          "371": -1.2856940031051636,
          "372": 0.9536293745040894,
          "373": -0.15353161096572876,
          "374": 0.4167547821998596,
          "375": -0.6193289756774902,
          "376": -0.013138907961547375,
          "377": 0.23587211966514587,
          "378": 0.5603529810905457,
          "379": -2.556990623474121,
          "380": 0.4916282594203949,
          "381": -0.37069186568260193,
          "382": 0.9728923439979553,
          "383": -0.9567455649375916,
          "384": 0.37743768095970154,
          "385": -1.313457727432251,
          "386": -1.5967472791671753,
          "387": -0.8990579843521118,
          "388": 0.3575206696987152,
          "389": 1.0255595445632935,
          "390": -2.425597667694092,
          "391": 1.4383760690689087,
          "392": 1.7902699708938599,
          "393": -1.6233081817626953,
          "394": -1.1393229961395264,
          "395": 2.386456251144409,
          "396": 1.0430699586868286,
          "397": -1.0287890434265137,
          "398": -0.2693527638912201,
          "399": 0.059071388095617294,
          "400": -0.18352963030338287,
          "401": -0.13181565701961517,
          "402": 1.8000011444091797,
          "403": -1.0205954313278198,
          "404": 0.6444535851478577,
          "405": -3.4719772338867188,
          "406": -0.8684558272361755,
          "407": 0.42806172370910645,
          "408": 2.998152732849121,
          "409": 2.0449278354644775,
          "410": -0.06633046269416809,
          "411": -0.21296514570713043,
          "412": 0.36824262142181396,
          "413": 0.510413646697998,
          "414": 0.4139532744884491,
          "415": -1.1851751804351807,
          "416": 0.7142115831375122,
          "417": 3.4705417156219482,
          "418": 1.299421787261963,
          "419": 1.213228464126587,
          "420": -0.04744967818260193,
          "421": 1.2349801063537598,
          "422": -0.25168630480766296,
          "423": 0.0410044863820076,
          "424": 0.7591803073883057,
          "425": 0.5634886622428894,
          "426": 0.4327501356601715,
          "427": 1.1150002479553223,
          "428": -0.5964780449867249,
          "429": 2.934812068939209,
          "430": 1.09367835521698,
          "431": 1.2105364799499512,
          "432": -0.516581118106842,
          "433": -2.2083044052124023,
          "434": 0.0028986125253140926,
          "435": 1.4862860441207886,
          "436": 0.592070460319519,
          "437": -0.2856876850128174,
          "438": 0.7784194350242615,
          "439": -1.585664987564087,
          "440": -0.6386440396308899,
          "441": 0.7106383442878723,
          "442": 1.0682380199432373,
          "443": -0.1896117627620697,
          "444": -1.547444224357605,
          "445": 1.9910168647766113,
          "446": -0.034431394189596176,
          "447": -0.5692704916000366,
          "448": 0.805168092250824,
          "449": -0.15309058129787445,
          "450": -0.32505083084106445,
          "451": -1.9574352502822876,
          "452": 2.137387275695801,
          "453": -1.4179431200027466,
          "454": -1.208197832107544,
          "455": -0.1319533735513687,
          "456": -0.16911394894123077,
          "457": -1.4507969617843628,
          "458": 1.161098599433899,
          "459": 1.778331995010376,
          "460": -1.8488483428955078,
          "461": 1.1465398073196411,
          "462": -0.010520609095692635,
          "463": -1.1581844091415405,
          "464": -2.396099805831909,
          "465": 0.15263204276561737,
          "466": 0.5737701654434204,
          "467": -1.4076709747314453,
          "468": -2.0438883304595947,
          "469": -1.6687405109405518,
          "470": -0.05874214693903923,
          "471": 0.5298815369606018,
          "472": -1.6145511865615845,
          "473": 3.2430317401885986,
          "474": 0.34690147638320923,
          "475": -0.05164956673979759,
          "476": -0.8245969414710999,
          "477": -0.42096757888793945,
          "478": 0.6096829175949097,
          "479": 2.517879009246826,
          "480": 0.9351963400840759,
          "481": -0.4377487897872925,
          "482": -0.30092042684555054,
          "483": 1.751535177230835,
          "484": 0.42292943596839905,
          "485": -1.4888286590576172,
          "486": 1.1946338415145874,
          "487": 1.2089061737060547,
          "488": -0.8962413668632507,
          "489": 0.7733557820320129,
          "490": 0.7112325429916382,
          "491": 0.9638180732727051,
          "492": 1.8689807653427124,
          "493": 1.1581051349639893,
          "494": -0.6024435758590698,
          "495": -0.9712456464767456,
          "496": 1.092036485671997,
          "497": -1.2048649787902832,
          "498": -2.1715691089630127,
          "499": -0.12799480557441711,
          "500": -1.623352289199829,
          "501": 1.85751211643219,
          "502": -0.09285496920347214,
          "503": -2.116021156311035,
          "504": 2.3438336849212646,
          "505": -1.1998006105422974,
          "506": 1.0436389446258545,
          "507": -0.50688636302948,
          "508": -0.92116779088974,
          "509": 0.7238924503326416,
          "510": -0.24685922265052795,
          "511": 0.9809663891792297,
          "512": 1.2347337007522583,
          "513": 2.900069236755371,
          "514": -0.1542310267686844,
          "515": 2.264956474304199,
          "516": 0.8208125233650208,
          "517": 0.8315187096595764,
          "518": 0.9933061599731445,
          "519": 0.08444423228502274,
          "520": 0.6167578101158142,
          "521": -0.7896161675453186,
          "522": 2.330780029296875,
          "523": -0.5538097620010376,
          "524": -1.4858384132385254,
          "525": 1.0870745182037354,
          "526": 0.5168606638908386,
          "527": -0.4783003628253937,
          "528": -0.08464251458644867,
          "529": -3.651625633239746,
          "530": -2.0719478130340576,
          "531": -1.688362956047058,
          "532": 1.756316065788269,
          "533": 1.87997305393219,
          "534": -2.2852962017059326,
          "535": 1.6564617156982422,
          "536": 0.35815227031707764,
          "537": 0.33344531059265137,
          "538": 0.07368844747543335,
          "539": -2.0167627334594727,
          "540": -1.2860161066055298,
          "541": 1.9596153497695923,
          "542": 2.875263214111328,
          "543": 2.1466915607452393,
          "544": 1.183180570602417,
          "545": 0.20392562448978424,
          "546": -0.8622745871543884,
          "547": 0.640076220035553,
          "548": 1.1393609046936035,
          "549": -0.754514753818512,
          "550": -0.8286442756652832,
          "551": 1.3970123529434204,
          "552": 0.11904589086771011,
          "553": 1.9513845443725586,
          "554": 2.1517162322998047,
          "555": 2.1416258811950684,
          "556": -1.6558713912963867,
          "557": -2.091670274734497,
          "558": 2.078606128692627,
          "559": 1.047102451324463,
          "560": 0.711089015007019,
          "561": 1.1677061319351196,
          "562": 0.5228920578956604,
          "563": -0.2973882853984833,
          "564": -0.3887723684310913,
          "565": 0.5006551146507263,
          "566": 0.13207785785198212,
          "567": 2.738186836242676,
          "568": 1.6978813409805298,
          "569": 0.4706588089466095,
          "570": 1.750238060951233,
          "571": 3.861448049545288,
          "572": 1.676863670349121,
          "573": -1.9789378643035889,
          "574": -1.6272685527801514,
          "575": -1.3086553812026978,
          "576": 0.8846331238746643,
          "577": -1.4181336164474487,
          "578": 0.28920021653175354,
          "579": -1.3855284452438354,
          "580": 2.731569528579712,
          "581": 0.3201027512550354,
          "582": -1.8368449211120605,
          "583": 2.3586366176605225,
          "584": 0.07207778096199036,
          "585": -1.9991315603256226,
          "586": -1.1272563934326172,
          "587": -0.06422331929206848,
          "588": -0.25324052572250366,
          "589": 1.4780932664871216,
          "590": -0.28006571531295776,
          "591": 0.6887562274932861,
          "592": -0.16794174909591675,
          "593": 1.4882746934890747,
          "594": -0.19861501455307007,
          "595": 0.4178975224494934,
          "596": -0.38399770855903625,
          "597": -0.5345064997673035,
          "598": 1.4752053022384644,
          "599": 1.1440409421920776,
          "600": 1.730309009552002,
          "601": 0.19758477807044983,
          "602": 0.7644449472427368,
          "603": 0.772429883480072,
          "604": 0.14139008522033691,
          "605": -1.2651495933532715,
          "606": -0.39068296551704407,
          "607": 2.32322096824646,
          "608": -1.7140088081359863,
          "609": 0.014696837402880192,
          "610": -2.4069416522979736,
          "611": 0.9932577013969421,
          "612": -0.3393079936504364,
          "613": -0.9330458045005798,
          "614": 1.698683500289917,
          "615": -1.3658350706100464,
          "616": -0.6196872591972351,
          "617": 0.27683454751968384,
          "618": 0.17514102160930634,
          "619": 0.05280438810586929
        }
      },
      "inputHidden": {
        "rows": 20,
        "columns": 20,
        "weights": {
          "0": 1.5846049785614014,
          "1": 1.380025863647461,
          "2": -0.6876430511474609,
          "3": 0.6998642683029175,
          "4": 0.8013750910758972,
          "5": 0.9202888011932373,
          "6": -0.362605482339859,
          "7": -1.543009638786316,
          "8": 0.9697512984275818,
          "9": -1.125604510307312,
          "10": -3.0348241329193115,
          "11": 1.1421176195144653,
          "12": -0.2586735785007477,
          "13": -4.578384876251221,
          "14": -6.1175994873046875,
          "15": 0.7962713837623596,
          "16": 0.898928701877594,
          "17": 2.6761107444763184,
          "18": -2.4002022743225098,
          "19": -1.0507346391677856,
          "20": 0.9889978766441345,
          "21": -2.148536205291748,
          "22": 0.4129006862640381,
          "23": -1.675086498260498,
          "24": 1.3106303215026855,
          "25": -2.040431022644043,
          "26": -0.26193708181381226,
          "27": -0.3930194079875946,
          "28": 0.6838135123252869,
          "29": -0.452457457780838,
          "30": -0.6458171010017395,
          "31": 3.40130352973938,
          "32": -1.502516508102417,
          "33": 2.998826503753662,
          "34": 0.9991379976272583,
          "35": -3.0552754402160645,
          "36": -3.3187522888183594,
          "37": -1.1364901065826416,
          "38": -0.4844602942466736,
          "39": -1.6873137950897217,
          "40": -1.2782340049743652,
          "41": -2.0764214992523193,
          "42": 0.8734026551246643,
          "43": -1.3482394218444824,
          "44": 0.696089506149292,
          "45": 0.7177921533584595,
          "46": 1.5332965850830078,
          "47": -1.5782867670059204,
          "48": -2.862443685531616,
          "49": 0.1213664561510086,
          "50": -0.3346821069717407,
          "51": 1.361865520477295,
          "52": -1.0551073551177979,
          "53": 1.8809704780578613,
          "54": 0.29016903042793274,
          "55": -2.3331594467163086,
          "56": -0.791559636592865,
          "57": -1.1403074264526367,
          "58": 0.7987886071205139,
          "59": -0.341482937335968,
          "60": 2.6798925399780273,
          "61": -0.3824932873249054,
          "62": -0.4007326662540436,
          "63": 1.7402806282043457,
          "64": 0.8703469038009644,
          "65": 0.875990629196167,
          "66": -0.27444612979888916,
          "67": 0.6251559257507324,
          "68": -1.6510891914367676,
          "69": 0.5393275022506714,
          "70": -0.14588294923305511,
          "71": 0.4028623402118683,
          "72": 0.2072230875492096,
          "73": -0.5452255606651306,
          "74": -1.7880021333694458,
          "75": -2.2770323753356934,
          "76": 0.4580003619194031,
          "77": -1.264681339263916,
          "78": 2.132655620574951,
          "79": 0.8960551023483276,
          "80": 1.310077428817749,
          "81": 0.4740740954875946,
          "82": -1.9021891355514526,
          "83": 0.6977049112319946,
          "84": 0.5188385248184204,
          "85": 2.2628910541534424,
          "86": -0.5323449969291687,
          "87": 1.3978550434112549,
          "88": -2.2197790145874023,
          "89": 0.2632637023925781,
          "90": 1.9175283908843994,
          "91": -0.32565540075302124,
          "92": -0.9011442065238953,
          "93": 1.0161972045898438,
          "94": -0.31120529770851135,
          "95": -0.3766103684902191,
          "96": -0.7070620656013489,
          "97": 0.7546530961990356,
          "98": 3.4611263275146484,
          "99": -0.054024238139390945,
          "100": -0.34759584069252014,
          "101": -3.2877514362335205,
          "102": 3.671863555908203,
          "103": 2.815232753753662,
          "104": -1.1454613208770752,
          "105": -0.3245792090892792,
          "106": 0.11036240309476852,
          "107": -1.5430525541305542,
          "108": -2.456268072128296,
          "109": -2.3715105056762695,
          "110": -0.38879215717315674,
          "111": -0.9212736487388611,
          "112": 1.6601829528808594,
          "113": 2.3410894870758057,
          "114": 2.6420609951019287,
          "115": -2.8418173789978027,
          "116": -0.45139777660369873,
          "117": -0.11974141746759415,
          "118": 2.7800910472869873,
          "119": -0.6393189430236816,
          "120": 1.0831242799758911,
          "121": 2.0618929862976074,
          "122": -3.716433048248291,
          "123": 2.627136468887329,
          "124": 0.2946280837059021,
          "125": 3.1300129890441895,
          "126": -0.2733018398284912,
          "127": -2.201770305633545,
          "128": -3.8470447063446045,
          "129": -0.263138085603714,
          "130": -0.7556512355804443,
          "131": 3.387666940689087,
          "132": 1.1484555006027222,
          "133": -1.8735294342041016,
          "134": 0.5559269785881042,
          "135": 2.3682305812835693,
          "136": 1.816245198249817,
          "137": -0.5267453789710999,
          "138": 1.3951555490493774,
          "139": -1.609735369682312,
          "140": -1.8263798952102661,
          "141": 2.4750070571899414,
          "142": 0.6727016568183899,
          "143": 0.914462685585022,
          "144": -1.03151535987854,
          "145": -2.042109727859497,
          "146": -1.447300672531128,
          "147": -2.0477800369262695,
          "148": -0.0341586098074913,
          "149": 1.1032931804656982,
          "150": 0.031426165252923965,
          "151": 2.669191598892212,
          "152": 0.9897267818450928,
          "153": -0.16114090383052826,
          "154": 0.621704638004303,
          "155": 3.9290168285369873,
          "156": 2.9933462142944336,
          "157": 2.5801544189453125,
          "158": 3.240623712539673,
          "159": 0.26496201753616333,
          "160": -0.9924973845481873,
          "161": 2.6436972618103027,
          "162": -0.8077790141105652,
          "163": 0.8095752596855164,
          "164": 1.495911717414856,
          "165": 0.022419871762394905,
          "166": -2.891921281814575,
          "167": -1.1983323097229004,
          "168": 1.1684215068817139,
          "169": 0.3779168725013733,
          "170": 0.5513681173324585,
          "171": 0.4668859839439392,
          "172": 1.2262386083602905,
          "173": -1.6622039079666138,
          "174": -0.23752443492412567,
          "175": 3.6571600437164307,
          "176": 2.3182120323181152,
          "177": 1.6502937078475952,
          "178": -4.4420270919799805,
          "179": -0.5654218792915344,
          "180": 1.5733107328414917,
          "181": 2.1008431911468506,
          "182": -0.23972231149673462,
          "183": 2.7093658447265625,
          "184": 3.5468809604644775,
          "185": 3.0716915130615234,
          "186": 0.661856472492218,
          "187": -1.6653847694396973,
          "188": -2.9123518466949463,
          "189": 2.840736150741577,
          "190": -1.0998098850250244,
          "191": 3.381946086883545,
          "192": -2.104142665863037,
          "193": -2.0425848960876465,
          "194": -2.340749502182007,
          "195": 0.3183363080024719,
          "196": -0.22105523943901062,
          "197": -1.7178279161453247,
          "198": 1.5212613344192505,
          "199": -4.55517578125,
          "200": -0.6955111026763916,
          "201": -0.5724210143089294,
          "202": -0.3616968095302582,
          "203": 1.029383897781372,
          "204": 0.10388867557048798,
          "205": 1.3532527685165405,
          "206": 2.259413003921509,
          "207": -0.8723587989807129,
          "208": -0.8561319708824158,
          "209": -0.5563604831695557,
          "210": -0.0721936821937561,
          "211": -0.5151901245117188,
          "212": -0.8041860461235046,
          "213": -3.0120673179626465,
          "214": 1.1795051097869873,
          "215": 1.0252538919448853,
          "216": -2.3758466243743896,
          "217": 1.0815932750701904,
          "218": 2.1233701705932617,
          "219": 0.3907509446144104,
          "220": 1.4680492877960205,
          "221": -1.1689624786376953,
          "222": -0.7857993245124817,
          "223": 0.8928556442260742,
          "224": -1.439653754234314,
          "225": -3.0916433334350586,
          "226": -0.22376856207847595,
          "227": -2.623931407928467,
          "228": -0.8300525546073914,
          "229": -0.29046255350112915,
          "230": 1.1275461912155151,
          "231": -0.9606154561042786,
          "232": -0.23946541547775269,
          "233": 2.0433268547058105,
          "234": -0.7299247980117798,
          "235": 0.5821205377578735,
          "236": 0.36692437529563904,
          "237": -0.5787427425384521,
          "238": -0.211009219288826,
          "239": 0.9386154413223267,
          "240": 0.47590988874435425,
          "241": 1.1847294569015503,
          "242": 0.24424251914024353,
          "243": -1.4792084693908691,
          "244": -1.6022429466247559,
          "245": -0.760565996170044,
          "246": -3.361534357070923,
          "247": -1.1036455631256104,
          "248": -1.9523231983184814,
          "249": 3.480881452560425,
          "250": -1.4998477697372437,
          "251": 0.2830221354961395,
          "252": 0.09888381510972977,
          "253": -0.525715708732605,
          "254": 0.5340803861618042,
          "255": 0.916273295879364,
          "256": -2.955029010772705,
          "257": 0.8858806490898132,
          "258": -2.728440761566162,
          "259": 0.038705866783857346,
          "260": 0.7726992964744568,
          "261": -1.0633872747421265,
          "262": -0.29462912678718567,
          "263": 0.7755980491638184,
          "264": 0.6676150560379028,
          "265": -0.8237228989601135,
          "266": -0.5456562042236328,
          "267": 1.1255496740341187,
          "268": -0.522868812084198,
          "269": 1.5831871032714844,
          "270": 1.2128585577011108,
          "271": 0.11435963213443756,
          "272": 3.087310314178467,
          "273": 1.5210490226745605,
          "274": -0.6928669810295105,
          "275": -1.4774985313415527,
          "276": -1.778027892112732,
          "277": -0.29334262013435364,
          "278": -0.09615246206521988,
          "279": 0.7692066431045532,
          "280": -4.360062122344971,
          "281": -0.7547794580459595,
          "282": 0.811783492565155,
          "283": -3.517850160598755,
          "284": -1.3438907861709595,
          "285": -4.94181489944458,
          "286": 1.770163893699646,
          "287": 1.6722270250320435,
          "288": 1.424325704574585,
          "289": 2.472684621810913,
          "290": -2.169931411743164,
          "291": 0.6087836027145386,
          "292": -0.03354737162590027,
          "293": 0.3461046814918518,
          "294": 1.5600945949554443,
          "295": -1.077944278717041,
          "296": -2.3718554973602295,
          "297": 2.0933785438537598,
          "298": -1.6490280628204346,
          "299": 1.4422801733016968,
          "300": 1.682970404624939,
          "301": -1.1300108432769775,
          "302": 2.8708503246307373,
          "303": 0.54569011926651,
          "304": 1.3281121253967285,
          "305": -0.09647051990032196,
          "306": 1.5655462741851807,
          "307": 2.8136138916015625,
          "308": -0.942511796951294,
          "309": 0.29644110798835754,
          "310": -0.3430195152759552,
          "311": -0.15876097977161407,
          "312": 1.6182340383529663,
          "313": -0.22203396260738373,
          "314": -3.1623988151550293,
          "315": -1.433612585067749,
          "316": -1.8667347431182861,
          "317": -2.0761096477508545,
          "318": -0.4333718419075012,
          "319": 0.7270364165306091,
          "320": 2.767183303833008,
          "321": -1.7464334964752197,
          "322": 1.6727362871170044,
          "323": 1.9443196058273315,
          "324": -0.4565346837043762,
          "325": -0.26332902908325195,
          "326": -1.6113221645355225,
          "327": 1.9549012184143066,
          "328": 1.286502480506897,
          "329": -1.3335472345352173,
          "330": 1.828391671180725,
          "331": 0.21063171327114105,
          "332": 3.1616098880767822,
          "333": -4.709078788757324,
          "334": -2.9456145763397217,
          "335": 0.8914695382118225,
          "336": -0.36238253116607666,
          "337": 1.9174591302871704,
          "338": -1.4009732007980347,
          "339": 1.405748963356018,
          "340": 0.7180044054985046,
          "341": -2.127784490585327,
          "342": 2.2804923057556152,
          "343": -0.1164698451757431,
          "344": 0.07460664212703705,
          "345": -0.5753330588340759,
          "346": 0.07351358234882355,
          "347": -1.3079941272735596,
          "348": -2.050184726715088,
          "349": -0.4279918968677521,
          "350": -1.8660634756088257,
          "351": 0.12360534816980362,
          "352": 0.49867182970046997,
          "353": 0.7076457738876343,
          "354": -0.8838577270507812,
          "355": -0.9918591976165771,
          "356": -0.7942184805870056,
          "357": 1.315295934677124,
          "358": -0.6715503931045532,
          "359": 0.8035023212432861,
          "360": 2.289680242538452,
          "361": -0.8212467432022095,
          "362": 1.83026921749115,
          "363": 2.872849225997925,
          "364": 0.37913230061531067,
          "365": -1.1291412115097046,
          "366": 1.373870611190796,
          "367": 1.3409438133239746,
          "368": -0.9099828004837036,
          "369": -0.9871840476989746,
          "370": 0.473248690366745,
          "371": -0.29289695620536804,
          "372": 1.711557149887085,
          "373": -0.050658971071243286,
          "374": -2.840708017349243,
          "375": -1.0705749988555908,
          "376": -2.866554021835327,
          "377": 0.7852614521980286,
          "378": 0.443141907453537,
          "379": -0.026198986917734146,
          "380": -2.488215208053589,
          "381": 0.3927067518234253,
          "382": -2.1661179065704346,
          "383": 0.06256154924631119,
          "384": -0.5654242038726807,
          "385": 0.5463234782218933,
          "386": 4.233617782592773,
          "387": -1.8815895318984985,
          "388": 1.9604753255844116,
          "389": 0.46244657039642334,
          "390": 2.533513069152832,
          "391": -1.0293896198272705,
          "392": 2.125170946121216,
          "393": 3.068204879760742,
          "394": 5.27338171005249,
          "395": -3.1502344608306885,
          "396": -0.7168232202529907,
          "397": -1.6578484773635864,
          "398": 0.1545947939157486,
          "399": 2.1764328479766846
        }
      },
      "inputBias": {
        "rows": 20,
        "columns": 1,
        "weights": {
          "0": -0.7715250253677368,
          "1": -0.47698232531547546,
          "2": -0.35633426904678345,
          "3": -1.8386579751968384,
          "4": -0.6571024060249329,
          "5": -1.345259666442871,
          "6": -1.4802428483963013,
          "7": -0.5607258677482605,
          "8": -2.4099020957946777,
          "9": -0.45611572265625,
          "10": 0.018455935642123222,
          "11": -2.1086831092834473,
          "12": -0.24983768165111542,
          "13": 0.105899877846241,
          "14": -2.683642864227295,
          "15": -0.9052836894989014,
          "16": -2.176015853881836,
          "17": 1.2292709350585938,
          "18": -0.621519148349762,
          "19": 0.006496593821793795
        }
      },
      "forgetMatrix": {
        "rows": 20,
        "columns": 31,
        "weights": {
          "0": 0.8148748874664307,
          "1": 0.9842516183853149,
          "2": -0.9577224850654602,
          "3": 0.8968558311462402,
          "4": -0.09035216271877289,
          "5": 0.9248501062393188,
          "6": -0.7783111929893494,
          "7": -1.5687777996063232,
          "8": 1.7998642921447754,
          "9": -1.1838399171829224,
          "10": -2.2774951457977295,
          "11": -0.2896925210952759,
          "12": -2.0101935863494873,
          "13": -0.6437495350837708,
          "14": 0.21202990412712097,
          "15": 0.6890896558761597,
          "16": 0.8575728535652161,
          "17": 0.9220952987670898,
          "18": 1.0088814496994019,
          "19": 0.5712196230888367,
          "20": -0.3192669153213501,
          "21": 1.1117675304412842,
          "22": -1.288375973701477,
          "23": -1.3538570404052734,
          "24": 1.4334392547607422,
          "25": -0.1843276172876358,
          "26": -0.5155087113380432,
          "27": 0.4916360378265381,
          "28": 0.546695351600647,
          "29": -0.18458649516105652,
          "30": -0.6570115685462952,
          "31": -0.18472884595394135,
          "32": 2.251847505569458,
          "33": 0.6241011619567871,
          "34": 0.5525467395782471,
          "35": 3.5701324939727783,
          "36": -0.9168989658355713,
          "37": 2.1620497703552246,
          "38": 2.1355655193328857,
          "39": -0.7772114276885986,
          "40": 1.0611408948898315,
          "41": 0.5901710391044617,
          "42": 1.61623215675354,
          "43": 0.1829097867012024,
          "44": -0.8780109882354736,
          "45": 1.843101978302002,
          "46": -0.07720502465963364,
          "47": 0.07585829496383667,
          "48": -1.5901445150375366,
          "49": 0.41593021154403687,
          "50": -1.9603737592697144,
          "51": -0.3922557234764099,
          "52": -0.045680053532123566,
          "53": -0.38130733370780945,
          "54": 2.365551471710205,
          "55": 0.6322432160377502,
          "56": 0.34072619676589966,
          "57": -1.616545557975769,
          "58": 1.1733661890029907,
          "59": 2.8791723251342773,
          "60": -1.427513599395752,
          "61": -0.6425625681877136,
          "62": 1.187612533569336,
          "63": -0.7236080765724182,
          "64": 0.446908563375473,
          "65": -1.8437432050704956,
          "66": 0.7325061559677124,
          "67": -1.3589533567428589,
          "68": 0.09473557770252228,
          "69": 1.8554575443267822,
          "70": 0.7361546754837036,
          "71": 0.3690248727798462,
          "72": 0.8279609084129333,
          "73": 1.1404889822006226,
          "74": -1.104743480682373,
          "75": -0.38261276483535767,
          "76": -2.0428812503814697,
          "77": 2.3726744651794434,
          "78": 2.295572519302368,
          "79": -1.7680528163909912,
          "80": 1.8114619255065918,
          "81": -1.8904075622558594,
          "82": -0.3653956651687622,
          "83": 3.038431167602539,
          "84": -2.4860332012176514,
          "85": 0.03605217859148979,
          "86": -0.07339790463447571,
          "87": 1.6637929677963257,
          "88": -1.2339940071105957,
          "89": 2.3844382762908936,
          "90": -0.5802643299102783,
          "91": 1.0523885488510132,
          "92": 1.8413288593292236,
          "93": 1.0864111185073853,
          "94": 0.5011811256408691,
          "95": 2.096951723098755,
          "96": 2.435401678085327,
          "97": 2.0237627029418945,
          "98": 0.7995713353157043,
          "99": -0.5789404511451721,
          "100": 0.8248260021209717,
          "101": -1.537195086479187,
          "102": -0.4934045374393463,
          "103": -0.661480188369751,
          "104": 0.43059468269348145,
          "105": 0.993694543838501,
          "106": 0.46446362137794495,
          "107": -1.5195924043655396,
          "108": -1.5893898010253906,
          "109": -0.7080495953559875,
          "110": -0.6606036424636841,
          "111": 0.5081179738044739,
          "112": -0.4909569025039673,
          "113": 0.757143497467041,
          "114": 0.5060072541236877,
          "115": -0.2227431684732437,
          "116": 1.00702702999115,
          "117": -1.0232181549072266,
          "118": 0.6219806671142578,
          "119": -1.8630685806274414,
          "120": -1.247657299041748,
          "121": -1.5657103061676025,
          "122": 1.0959641933441162,
          "123": 1.5322188138961792,
          "124": -0.12299823760986328,
          "125": 1.2226669788360596,
          "126": 1.4455318450927734,
          "127": 0.9529955983161926,
          "128": 0.7587286829948425,
          "129": -0.7137960195541382,
          "130": -1.3683384656906128,
          "131": -2.0928447246551514,
          "132": -1.2164156436920166,
          "133": 0.7392124533653259,
          "134": -0.4714994430541992,
          "135": -0.9976500868797302,
          "136": 1.01844322681427,
          "137": 0.16964730620384216,
          "138": -1.4501994848251343,
          "139": -1.8692952394485474,
          "140": -2.5866644382476807,
          "141": -0.2583884596824646,
          "142": -1.2226985692977905,
          "143": 0.2755727171897888,
          "144": -1.3121572732925415,
          "145": -1.7165335416793823,
          "146": 1.0883212089538574,
          "147": 0.542382538318634,
          "148": -1.4428988695144653,
          "149": -0.8607648015022278,
          "150": -1.8190842866897583,
          "151": -2.6995701789855957,
          "152": -1.0220906734466553,
          "153": 1.3672611713409424,
          "154": 1.0606207847595215,
          "155": 0.3520433306694031,
          "156": -0.553735613822937,
          "157": -2.1667070388793945,
          "158": 3.2599525451660156,
          "159": 1.0220588445663452,
          "160": -0.08680083602666855,
          "161": 1.3673503398895264,
          "162": -2.7721140384674072,
          "163": -0.5777778029441833,
          "164": 0.21875232458114624,
          "165": 1.2158311605453491,
          "166": 3.4381396770477295,
          "167": -0.5761995911598206,
          "168": -1.1543893814086914,
          "169": -0.9171161651611328,
          "170": 1.6050690412521362,
          "171": 1.03764808177948,
          "172": 1.5837260484695435,
          "173": -1.071120023727417,
          "174": -0.46054697036743164,
          "175": 2.9112117290496826,
          "176": -0.9859265089035034,
          "177": -0.2229766547679901,
          "178": 2.1396548748016357,
          "179": -0.4941255450248718,
          "180": -0.0007426090305671096,
          "181": -0.035898853093385696,
          "182": 2.6247169971466064,
          "183": -1.4491610527038574,
          "184": 1.495431661605835,
          "185": 1.370052456855774,
          "186": -1.4573582410812378,
          "187": 0.4645555019378662,
          "188": -1.1736642122268677,
          "189": 0.4941022992134094,
          "190": -0.7097359299659729,
          "191": 0.10507182776927948,
          "192": 1.012135624885559,
          "193": 0.2895399332046509,
          "194": 0.7093870043754578,
          "195": 0.053089965134859085,
          "196": -1.5499380826950073,
          "197": -1.027999997138977,
          "198": -0.9419225454330444,
          "199": -3.282485246658325,
          "200": 0.06666167080402374,
          "201": 1.183939814567566,
          "202": 0.39622247219085693,
          "203": 0.2420022040605545,
          "204": -0.1184631884098053,
          "205": -0.07085734605789185,
          "206": -1.2374825477600098,
          "207": -0.3733111023902893,
          "208": -0.7321987748146057,
          "209": 0.19259709119796753,
          "210": 0.6602956056594849,
          "211": -2.340494155883789,
          "212": 0.03751610592007637,
          "213": -0.0894784927368164,
          "214": 0.2852402329444885,
          "215": -1.1320786476135254,
          "216": -1.6503117084503174,
          "217": -0.9006169438362122,
          "218": 1.4488205909729004,
          "219": 1.904140830039978,
          "220": -0.4035995304584503,
          "221": 1.9268741607666016,
          "222": -0.3818536102771759,
          "223": -1.465501070022583,
          "224": 0.6496261358261108,
          "225": -1.494431972503662,
          "226": -0.5100131034851074,
          "227": -0.7763926982879639,
          "228": -0.9799438118934631,
          "229": 2.2681467533111572,
          "230": 0.3465675413608551,
          "231": -2.5295004844665527,
          "232": -1.4781023263931274,
          "233": -1.7915557622909546,
          "234": -1.1490411758422852,
          "235": -1.9130586385726929,
          "236": -1.139116883277893,
          "237": 0.8487759828567505,
          "238": 0.08043358474969864,
          "239": -0.5099403858184814,
          "240": 0.6977476477622986,
          "241": -0.056918658316135406,
          "242": 0.5161415338516235,
          "243": -1.028230905532837,
          "244": -0.4373341500759125,
          "245": -1.430209755897522,
          "246": 1.1071531772613525,
          "247": 0.9204232096672058,
          "248": 0.03142080456018448,
          "249": -0.6899629831314087,
          "250": 0.3618088662624359,
          "251": 1.8109713792800903,
          "252": -0.0833500325679779,
          "253": 0.47289741039276123,
          "254": -1.5591976642608643,
          "255": -0.1465449184179306,
          "256": -0.8918619751930237,
          "257": 0.47653135657310486,
          "258": -0.9690433144569397,
          "259": -1.1306147575378418,
          "260": -0.6147499084472656,
          "261": 2.067568063735962,
          "262": -0.5810487270355225,
          "263": 0.21281780302524567,
          "264": -0.5128196477890015,
          "265": -0.18205569684505463,
          "266": -1.4497207403182983,
          "267": 0.8371559977531433,
          "268": -1.2730520963668823,
          "269": 0.503813624382019,
          "270": 1.2281605005264282,
          "271": -0.7934232354164124,
          "272": -3.050194263458252,
          "273": -0.5133576393127441,
          "274": 0.4435863792896271,
          "275": -1.567215085029602,
          "276": -2.285308599472046,
          "277": 3.6618118286132812,
          "278": 2.1825084686279297,
          "279": -0.5206760764122009,
          "280": 1.4429283142089844,
          "281": -0.42373132705688477,
          "282": 0.40560442209243774,
          "283": -0.9083436727523804,
          "284": -2.0184013843536377,
          "285": -1.845559000968933,
          "286": -0.22106169164180756,
          "287": -0.2456893026828766,
          "288": -0.6322189569473267,
          "289": 0.5800509452819824,
          "290": -0.8685619235038757,
          "291": 0.7944180369377136,
          "292": -0.5530803203582764,
          "293": -2.922917604446411,
          "294": -1.399106502532959,
          "295": -2.1144514083862305,
          "296": -1.2961170673370361,
          "297": -2.8655006885528564,
          "298": -1.5658166408538818,
          "299": -0.6207090616226196,
          "300": -1.6982202529907227,
          "301": 0.19631081819534302,
          "302": 0.9275464415550232,
          "303": 0.5286992192268372,
          "304": -2.3305182456970215,
          "305": -1.067190408706665,
          "306": -0.140025332570076,
          "307": 0.0723964124917984,
          "308": -0.005077294073998928,
          "309": -0.28387099504470825,
          "310": 2.281346321105957,
          "311": 0.25507211685180664,
          "312": -0.3066558539867401,
          "313": 0.05419144406914711,
          "314": -0.006037619896233082,
          "315": -0.7492284774780273,
          "316": 0.5640820860862732,
          "317": -2.0846359729766846,
          "318": 1.0697047710418701,
          "319": 0.8139289021492004,
          "320": 3.4256458282470703,
          "321": 0.679732620716095,
          "322": 0.04360535740852356,
          "323": 0.24013946950435638,
          "324": 0.8544376492500305,
          "325": 0.33361655473709106,
          "326": -0.30228379368782043,
          "327": 1.4407399892807007,
          "328": 1.030146598815918,
          "329": -0.33499395847320557,
          "330": 0.7488784790039062,
          "331": -1.8429101705551147,
          "332": 0.536146879196167,
          "333": 0.45990052819252014,
          "334": 0.27872899174690247,
          "335": 1.3637093305587769,
          "336": 1.0327485799789429,
          "337": 2.2400805950164795,
          "338": 0.3821219503879547,
          "339": -0.0981384739279747,
          "340": -0.7889976501464844,
          "341": -1.7905486822128296,
          "342": -1.104270577430725,
          "343": 1.036870002746582,
          "344": 0.8070346713066101,
          "345": -0.10612951964139938,
          "346": 1.1309289932250977,
          "347": -1.15021550655365,
          "348": -0.09265106916427612,
          "349": -3.3933534622192383,
          "350": -1.5431393384933472,
          "351": -1.373570442199707,
          "352": -1.5031981468200684,
          "353": 4.061103343963623,
          "354": 1.2044509649276733,
          "355": -1.3078598976135254,
          "356": -1.3143000602722168,
          "357": -1.738548994064331,
          "358": -0.42187923192977905,
          "359": -1.9382706880569458,
          "360": 0.48357781767845154,
          "361": 0.2657967507839203,
          "362": -1.9694676399230957,
          "363": -0.33938711881637573,
          "364": -1.1839052438735962,
          "365": -0.3800446093082428,
          "366": -1.8918073177337646,
          "367": 1.5005590915679932,
          "368": 0.49350833892822266,
          "369": -1.931756854057312,
          "370": 1.8425768613815308,
          "371": 0.24895502626895905,
          "372": 1.6096652746200562,
          "373": 0.44588756561279297,
          "374": -0.6978187561035156,
          "375": 0.6306462287902832,
          "376": -1.4854844808578491,
          "377": 1.4674103260040283,
          "378": -1.2160056829452515,
          "379": -2.301574945449829,
          "380": 1.6990833282470703,
          "381": -0.09353184700012207,
          "382": 1.4262304306030273,
          "383": 0.9401329159736633,
          "384": -1.5357208251953125,
          "385": -0.7130573987960815,
          "386": -0.55673748254776,
          "387": 1.045525074005127,
          "388": 2.0431830883026123,
          "389": 1.4870387315750122,
          "390": 0.03213036432862282,
          "391": -0.07104995846748352,
          "392": -0.22958838939666748,
          "393": 0.7612599730491638,
          "394": -0.8671258687973022,
          "395": -1.0501896142959595,
          "396": 1.189341425895691,
          "397": -0.12441972643136978,
          "398": -0.23527942597866058,
          "399": 0.9446114301681519,
          "400": 1.0399004220962524,
          "401": -0.5356936454772949,
          "402": -1.287635087966919,
          "403": -0.25357046723365784,
          "404": -0.7539016008377075,
          "405": -2.4913084506988525,
          "406": -1.7679418325424194,
          "407": 0.08385255187749863,
          "408": 1.4119552373886108,
          "409": 0.21026510000228882,
          "410": 0.6868759393692017,
          "411": 0.627830445766449,
          "412": -0.8111045956611633,
          "413": 0.48001083731651306,
          "414": 1.8588718175888062,
          "415": -1.346657395362854,
          "416": 1.24937105178833,
          "417": -0.20549051463603973,
          "418": 2.9848811626434326,
          "419": 1.0784153938293457,
          "420": 0.3877621293067932,
          "421": -1.0228341817855835,
          "422": -0.4176323413848877,
          "423": 1.7573333978652954,
          "424": 2.209289312362671,
          "425": -0.38470974564552307,
          "426": -0.04865571856498718,
          "427": 0.7872920632362366,
          "428": 1.3530193567276,
          "429": 1.1821277141571045,
          "430": 0.5364047884941101,
          "431": 0.3693206012248993,
          "432": -0.035415876656770706,
          "433": 0.9319018721580505,
          "434": -0.9445295333862305,
          "435": -2.927833080291748,
          "436": -1.077620267868042,
          "437": 2.511119842529297,
          "438": -0.5139433741569519,
          "439": 2.0932130813598633,
          "440": -0.03991882503032684,
          "441": -0.9021410942077637,
          "442": 0.22052712738513947,
          "443": 0.38259419798851013,
          "444": -1.6319209337234497,
          "445": -0.37937626242637634,
          "446": -3.053649425506592,
          "447": -0.17078016698360443,
          "448": -0.31292909383773804,
          "449": 2.9438881874084473,
          "450": 0.8313313722610474,
          "451": 2.437814235687256,
          "452": 0.8089272379875183,
          "453": 1.185470461845398,
          "454": -0.35852324962615967,
          "455": 1.0208934545516968,
          "456": 0.33562201261520386,
          "457": -1.4008058309555054,
          "458": -1.4482507705688477,
          "459": -0.3082544505596161,
          "460": 0.6054595112800598,
          "461": 0.8761332631111145,
          "462": -1.8996412754058838,
          "463": 1.662443995475769,
          "464": 1.5998985767364502,
          "465": 1.2239556312561035,
          "466": 2.42301607131958,
          "467": 0.6560394763946533,
          "468": 0.6764784455299377,
          "469": 3.854434013366699,
          "470": -0.8794499635696411,
          "471": -0.8289759755134583,
          "472": 1.0880151987075806,
          "473": -0.18617214262485504,
          "474": 0.2592223286628723,
          "475": -1.3219079971313477,
          "476": 0.4487544596195221,
          "477": 0.5715497136116028,
          "478": -0.9611048698425293,
          "479": 0.5406508445739746,
          "480": -0.42221692204475403,
          "481": -0.6028308272361755,
          "482": -0.9524345397949219,
          "483": 1.76905357837677,
          "484": -1.1268104314804077,
          "485": 0.23803940415382385,
          "486": -1.1464935541152954,
          "487": 0.4727695882320404,
          "488": 1.104344367980957,
          "489": -1.7715719938278198,
          "490": 1.3140032291412354,
          "491": -2.5442938804626465,
          "492": 0.20402446389198303,
          "493": 0.3647671341896057,
          "494": 0.26142415404319763,
          "495": 0.7359609007835388,
          "496": -0.9422249794006348,
          "497": -0.7698085308074951,
          "498": -1.7421702146530151,
          "499": -1.8287299871444702,
          "500": -1.1855413913726807,
          "501": -0.1223958358168602,
          "502": -1.1980119943618774,
          "503": 0.9011220335960388,
          "504": -0.3401550352573395,
          "505": -0.6980290412902832,
          "506": 0.14191025495529175,
          "507": 0.42467665672302246,
          "508": -1.4122601747512817,
          "509": -0.3626314699649811,
          "510": 0.06757957488298416,
          "511": 1.3769491910934448,
          "512": 1.3716175556182861,
          "513": 0.45373037457466125,
          "514": 0.7989394664764404,
          "515": 0.5139487981796265,
          "516": -0.41994601488113403,
          "517": 1.1625912189483643,
          "518": -0.9288224577903748,
          "519": -0.6420159339904785,
          "520": 1.3983088731765747,
          "521": 0.9291895031929016,
          "522": 0.9908526539802551,
          "523": 0.4321224093437195,
          "524": 2.02071213722229,
          "525": -1.8714947700500488,
          "526": -0.10803450644016266,
          "527": -1.8201813697814941,
          "528": -1.1433922052383423,
          "529": 1.0474666357040405,
          "530": -1.057687520980835,
          "531": -1.987613320350647,
          "532": 0.7818694114685059,
          "533": -0.5209856629371643,
          "534": 0.30048272013664246,
          "535": -0.7290999293327332,
          "536": -1.5284397602081299,
          "537": -2.2294013500213623,
          "538": -1.5086578130722046,
          "539": 2.2232625484466553,
          "540": 2.275538921356201,
          "541": -0.07702293246984482,
          "542": -0.857678234577179,
          "543": -0.5117732882499695,
          "544": 0.48986947536468506,
          "545": -1.729397177696228,
          "546": 0.1565466821193695,
          "547": -1.3078347444534302,
          "548": 0.05328963324427605,
          "549": 2.1744508743286133,
          "550": -0.5181282162666321,
          "551": 2.525460720062256,
          "552": -2.1963717937469482,
          "553": 1.9400253295898438,
          "554": -1.3613085746765137,
          "555": -1.5563777685165405,
          "556": -0.7949931621551514,
          "557": 0.08820371329784393,
          "558": -0.16105668246746063,
          "559": 3.015906810760498,
          "560": -0.236395925283432,
          "561": 1.599114179611206,
          "562": 0.974636435508728,
          "563": -2.429603099822998,
          "564": -0.3780980110168457,
          "565": -0.17456935346126556,
          "566": -0.9134659767150879,
          "567": -0.629954993724823,
          "568": 1.889008641242981,
          "569": -0.12404732406139374,
          "570": 0.08195054531097412,
          "571": 0.12112762778997421,
          "572": -1.4004817008972168,
          "573": 1.5370311737060547,
          "574": 0.8886224627494812,
          "575": -3.4526093006134033,
          "576": -3.1280198097229004,
          "577": -2.7167584896087646,
          "578": -0.28481394052505493,
          "579": -0.5498519539833069,
          "580": -0.6589846611022949,
          "581": 2.5611021518707275,
          "582": 0.23267056047916412,
          "583": -1.610985279083252,
          "584": -1.3380286693572998,
          "585": 2.1186885833740234,
          "586": 0.21952064335346222,
          "587": 1.5270588397979736,
          "588": 1.1146693229675293,
          "589": -0.09721310436725616,
          "590": 2.092311382293701,
          "591": -0.41800156235694885,
          "592": 0.7520968317985535,
          "593": 2.242020845413208,
          "594": 1.9083726406097412,
          "595": -1.1922142505645752,
          "596": -0.26971012353897095,
          "597": -0.19686836004257202,
          "598": -0.7545531988143921,
          "599": -0.4693959355354309,
          "600": 0.7525217533111572,
          "601": 2.3159608840942383,
          "602": 0.2911774516105652,
          "603": 2.351860761642456,
          "604": -1.928194284439087,
          "605": -1.6115522384643555,
          "606": 0.4199979603290558,
          "607": -0.3770715296268463,
          "608": -2.3252155780792236,
          "609": 0.8623456954956055,
          "610": -2.881617784500122,
          "611": 0.45398056507110596,
          "612": 1.6535742282867432,
          "613": -0.4183230400085449,
          "614": 1.2673543691635132,
          "615": 0.5608543753623962,
          "616": -0.25472602248191833,
          "617": 0.4210071861743927,
          "618": 0.27847573161125183,
          "619": -1.183427095413208
        }
      },
      "forgetHidden": {
        "rows": 20,
        "columns": 20,
        "weights": {
          "0": -1.6549471616744995,
          "1": 2.819653034210205,
          "2": -3.032684564590454,
          "3": -0.20278723537921906,
          "4": -1.333513855934143,
          "5": 0.5050767660140991,
          "6": 0.7718037366867065,
          "7": -2.8042240142822266,
          "8": 0.29682794213294983,
          "9": -2.553802728652954,
          "10": -2.2058236598968506,
          "11": 0.49610039591789246,
          "12": -2.032012462615967,
          "13": -1.6103150844573975,
          "14": 2.823503017425537,
          "15": 1.7201653718948364,
          "16": 1.414433479309082,
          "17": -0.7923785448074341,
          "18": 0.6636364459991455,
          "19": 1.6808055639266968,
          "20": -0.8298421502113342,
          "21": 3.0069315433502197,
          "22": -1.9562500715255737,
          "23": 1.6233328580856323,
          "24": -0.7242817878723145,
          "25": 0.9155155420303345,
          "26": -2.9880847930908203,
          "27": -0.7038018107414246,
          "28": 0.691378116607666,
          "29": -0.5929123163223267,
          "30": -0.5596747994422913,
          "31": 3.2045626640319824,
          "32": -0.528279721736908,
          "33": -1.3496222496032715,
          "34": 1.997252106666565,
          "35": 2.1937763690948486,
          "36": 2.9516921043395996,
          "37": 2.3467862606048584,
          "38": -1.2027547359466553,
          "39": 0.23093637824058533,
          "40": -0.14921678602695465,
          "41": -0.20045219361782074,
          "42": 0.9545678496360779,
          "43": 2.1067821979522705,
          "44": -2.4720993041992188,
          "45": 0.06492021679878235,
          "46": 0.07993783801794052,
          "47": 0.8474699258804321,
          "48": -0.7126425504684448,
          "49": 0.8061396479606628,
          "50": -2.154001235961914,
          "51": -0.8530206680297852,
